solver_type L1R_LR
nr_class 2
label 1 2
nr_feature 171
bias -1
w
0,366191262101172
0,195711481042956
0,342127973993557
1,243546980519653
0,467443244744220
0,115906733391185
0,683248828608178
-1,126738472114771
-0,202830797662164
-0,091187230774936
-0,850576343514302
-0,984680667569826
0,858043052048380
0,043539681955871
0,047992925819565
0,271341747947683
0,028927072812655
-0,110710095612646
-0,010179088503512
-1,384231808718592
-0,000043451134487
0,069886450186702
1,224211745830342
0,570694558083084
-0,104802796628196
-0,605220740406995
-0,092810677421471
-0,368752450979271
-0,010395908921786
-0,092503473049779
0,997373186985805
-1,641477997494044
-0,431488023647828
-1,320088545513438
-0,449930976455867
-0,071639970551402
-0,153557651827684
1,012816822983393
0,183914097848751
0,492857473367955
0,100670142592476
-0,059703160270462
-0,048542439999833
-1,454951175016175
-0,307185329184183
-1,256086441496415
0,840598825987357
0,333658517699460
-0,348361415297729
-0,589932338571604
-0,681426458874638
-0,328662928224311
-0,005661658687233
-0,000643918819456
-0,066266825151278
0,951606154820834
0,227663180979153
0,364735895969384
-0,381737994162608
-0,093384545454792
2,090576005065913
-0,126354965357884
-0,219365733807088
-0,219571646032654
-1,125337686733975
1,158526557203472
-1,968713309688257
0,481558122367253
1,262166173566901
0,375275870910761
0,201964432752226
-0,789403194695013
-0,653344614877340
-0,886213137567367
-0,002411975371277
0,498390162334366
-0,194660057233455
-0,406675339133691
-0,438028759856396
-0,368863020629844
-0,446349650332403
-1,528622174574393
-1,108725583137434
-1,568783864242560
-0,394316387394807
-0,355588997060965
1,374274544794360
0,024930565067914
0,005385047218259
0,765380951282787
0,009446361205591
0,099551211642330
0,652977525936306
-2,422829455039308
-1,598453890019544
0,449683534572352
0,022309379507377
0,027139506155308
0,026041890711908
-1,807409039451354
-0,026998176881139
-0,583832737442226
-0,183196884072040
-0,411253068849463
-0,316481280345122
0,498178623206265
0,130274067765150
0,306813067062910
0,377316552037224
0,105581995174576
0,047877543838095
0,262304967342520
0,464346783454824
0,253401938331105
0,136741330892342
0,007011333520632
0,009698661387628
-0,809212487052259
0,812895570201009
-1,695861002150728
-0,704884659926955
0,050916546691871
0,092090730356953
-0,893499025311210
-0,950254379569799
0,036569129481484
0,751321766362864
0,201969791622368
-0,128219525748874
-1,184326415949049
-0,172691711764371
-1,604995462236609
0,159483539795146
1,194282928440684
0,560538621570588
0,448461795906042
-0,594359619717031
-1,131747349948603
-0,465242764505268
0,086524694560453
-0,655031012744026
-1,220711114183877
-0,315603394510190
0,107912208392719
0,139912106825678
0,078290266531786
-1,435864528588664
-0,023397896350979
-0,082078824535518
-1,690216580224966
-1,069676141756279
0,090445812342913
0,157500268945333
0,735855613603137
-0,428322994863024
-0,907468489243797
-0,454433442019731
-0,409860305716163
-0,078676533273192
-0,055923873203609
-0,020190650885342
-0,734272667263834
-0,030049092656131
-0,254466739977943
-0,031642446473488
-0,302543618314032
-0,219659755323204
-1,043202470653489
-0,765527171553960
-0,066932138433871
-0,850479187710359
